// Neural Network File Format by Kyle Julian, Stanford 2016
3,20,7,32,
20,32,32,7,
0,
0,0,0,0,0,0,0,0,0,0,0,0,0,0,0,0,0,0,0,0,
1,6,6,6,6,6,6,6,1,1,1,1,1,1,50,50,50,50,50,50,
0,0,0,0,0,0,0,0,0,0,0,0,0,0,0,0,0,0,0,0,0,
1,1,1,1,1,1,1,1,1,1,1,1,1,1,1,1,1,1,1,1,1,
0.33076894,0.55052602,-0.62957478,-0.64262378,0.83071202,0.59386784,-0.51479882,-0.21385999,-2.83540988,-1.66466296,4.17705059,-1.00637317,-0.52319562,2.49658203,-0.00322211,-0.03818584,0.07912021,0.00887789,-0.01500774,-0.02604815,
-2.55796504,0.64625800,-0.02215699,0.43551433,0.22068015,-0.20008400,0.77667296,1.44806647,1.78761065,1.71632671,1.07846558,-3.30279946,-0.13139825,2.66027761,0.00795337,-0.04700883,0.02614269,0.02701528,-0.01256872,-0.02616652,
-3.97836566,0.66011459,-0.02952746,0.17182048,0.61375558,0.16173837,0.15730926,0.39460772,-0.55153751,-2.18921685,2.35555625,1.27990878,-0.24057312,1.46171367,0.04148418,0.03861644,-0.02015787,-0.00482808,-0.01602553,0.03042909,
-0.35280660,1.02255893,0.92863637,-0.05760015,0.75720757,-0.44055206,-0.35232425,-0.38126785,5.29597425,0.85635674,-0.69010311,-0.56133276,1.25630534,-1.38858998,-0.06237599,0.04021476,-0.02965571,-0.08646616,-0.06113621,0.03644950,
-5.83367252,-0.27462134,-0.57798636,-0.24054340,0.54314774,0.26942882,0.59450096,-3.54067039,0.55523628,-1.18733227,-0.31621033,-4.85789061,1.88444066,-0.52903396,-0.07998516,0.04054108,-0.05399630,0.02531422,0.01136858,0.01868910,
-1.62252474,1.33491015,0.15141131,0.78822505,-0.61420512,-0.15627216,0.80225396,1.39109612,-0.06388123,1.61332977,-1.11494505,2.64052582,0.66114563,3.29232478,-0.01147968,0.05499552,-0.01436689,-0.07386246,-0.03132509,-0.00477070,
2.27801991,1.21013784,0.22477260,-0.35669148,-0.30901334,-0.47887465,0.35413176,0.53517485,5.08329010,-1.75386810,1.60956764,-0.10997818,0.63450456,0.35738117,0.06214872,0.02591480,-0.04133628,-0.00775646,-0.06088533,-0.00334555,
-0.30910510,0.08421785,-0.47246113,-0.03029726,0.05519837,0.38702255,0.14350604,-0.07107369,1.71393347,1.20393419,0.39516762,0.00400204,0.24843799,0.80787009,0.03953673,0.06941794,-0.16834237,-0.01919390,-0.89213306,-2.01187539,
1.84945107,-1.11608660,-0.88760984,-0.12869440,-0.07336776,0.20866765,0.47355577,-2.01575541,-2.42049789,-1.22391367,-4.21180677,1.05329168,-0.33005273,0.16167064,-0.40596563,-0.76984310,-0.04203053,-0.04688520,-0.12763689,-0.14097996,
-3.48196173,1.18520987,0.69631976,0.25878176,-0.11882992,0.21467292,-0.18207331,0.01540722,2.17565703,-1.07961106,0.21949452,1.89585638,0.76628596,1.63796604,-0.01496882,-0.00404245,0.13266954,0.03178653,0.08152394,0.06716903,
-0.14641923,0.65526736,0.05474849,-0.02995801,0.67542928,-0.26980156,0.42517835,1.13540471,-0.65419811,0.14608213,3.79732752,2.23479843,2.14054918,-3.48956561,0.01395821,-0.04982200,-0.03168983,0.00753214,-0.04167926,-0.03361826,
-0.02312379,0.57312101,0.31649253,0.00158621,1.09815621,0.58965117,-0.42704618,0.01978215,0.43600622,0.77047217,-1.94137025,2.91883707,-2.37779927,2.32130289,0.01426840,0.02091923,-0.02433809,0.01099931,-0.01905155,-0.03133233,
1.24039626,-1.36214864,-0.47095865,0.07878590,0.41045550,1.78401923,0.03047408,-0.24484603,-2.91899490,-5.50555086,-1.35044920,-1.97158885,-1.40563154,1.59104121,-0.07748600,0.00796952,-0.11717438,0.00847442,-0.11006866,0.09194223,
0.56946117,-1.30483234,0.20275836,0.35428068,0.49872005,0.30380428,0.28278416,0.18088323,-4.57992458,-2.35947657,-2.33268332,-1.51988554,-0.54364914,-0.70460379,-0.80256289,-0.11003460,-1.80930734,0.01706856,-0.56621772,0.00653267,
-1.11460304,0.82120270,-0.61019373,-0.24143754,0.49328700,0.48935670,0.37637085,-0.04750981,0.63476026,1.20723772,-0.38708195,-1.30057001,3.54017210,-0.64829713,0.02297132,0.07817596,0.11038345,0.08105924,0.05238218,0.03655386,
2.41615891,-0.11129349,0.51533335,1.23853254,-0.39922291,0.44787872,0.48533249,0.37645999,2.59479833,2.03200579,3.77270365,0.76891887,-2.79521298,-2.35224938,0.01006184,0.02963441,0.02656008,0.02346427,0.03318975,0.01474200,
-2.62085128,0.84320563,0.78992701,0.56306577,0.27109200,0.07054489,0.17997390,1.68726075,0.04342182,5.25038338,0.87649751,0.80877447,-0.79809302,-0.59246528,0.00057763,0.03857596,0.01834001,-0.02049701,-0.06836652,0.00807171,
-1.33936381,0.00934596,-1.02592242,0.79360682,0.12919170,0.80079687,1.28832138,-0.55493581,-3.43880057,-0.34931681,-0.24691908,1.12713194,1.89389622,-1.60536897,0.03495450,0.03487899,-0.03719986,-0.03358096,0.02729123,-0.01814742,
-0.07773093,0.38880184,0.78184074,0.50288409,-0.08301724,0.23374583,-0.04815911,-2.09294248,-1.75569725,-1.64278638,-0.19352841,-1.15133786,3.23921871,0.09578333,-0.00590941,-0.01345134,0.03996858,-0.00895459,-0.02276484,0.04221038,
1.42790794,0.81402290,-0.57393551,-0.73407739,-0.72582167,0.34364387,0.75847787,0.46651027,0.22912131,1.93587756,2.39000821,4.23151684,-1.31647277,-1.59235966,-0.05630472,-0.01374079,0.04997485,0.02731150,-0.00832844,0.01079343,
-1.29935682,1.31490719,0.60697001,-0.15929171,-0.22912715,0.37438622,0.83515179,-0.21567142,-1.48047447,1.30181980,1.03231561,0.42786351,1.91635251,2.36621261,0.04006240,-0.04075922,-0.00040945,0.04903215,-0.04989780,-0.01021818,
-2.13312125,1.06251097,1.49749815,-4.75778246,0.46180546,0.35057995,0.42574406,0.45154291,0.51284724,-0.08201247,0.54758602,0.72938281,0.68931162,0.92864591,0.01232592,0.01862817,-0.00031407,-0.00577996,-0.01544754,0.00818499,
1.93699491,0.45500520,0.08893441,-0.67728591,0.49303919,0.37137714,0.08223289,0.13068424,-2.41804886,-4.39444637,0.30204934,1.03907025,1.63187647,3.20530748,-0.01603901,0.02193815,0.01028290,-0.02103496,0.00511168,-0.03930788,
-2.00307965,-0.38668784,-0.59714693,-1.22029817,0.28453878,-0.35079211,0.60898751,-0.00540644,0.91034317,0.14162077,-0.23616478,2.61015463,1.04960752,-5.72653770,-0.29580739,-0.13095453,0.05881448,0.02732311,-0.00847041,-0.00577616,
3.57831025,1.22841918,-1.03205526,-0.54641593,0.55278391,0.60547686,-0.12396681,0.00000489,1.41951549,-1.06384182,-1.64683938,2.21302700,1.52915645,1.74676359,0.03952707,-0.05702529,0.01643409,0.03139010,-0.00339365,-0.01893787,
2.02004313,-1.01694667,-0.63378346,-0.41567549,0.48773080,0.84492809,0.97440672,-4.21023083,-7.41230154,-6.64286041,-7.36585188,-3.36308002,0.60432357,0.77892619,-0.02046090,0.01401700,-0.02885851,-0.02179506,0.01565440,0.00753062,
-1.31667995,0.68828410,-3.93115401,-0.15928321,0.11395899,0.15096802,0.27726510,0.28671572,4.38902092,-1.12672114,0.83935213,0.25865480,0.41042072,0.52116531,-0.00054736,-0.05983606,0.00563856,0.02083711,-0.00667327,-0.02612671,
-2.95058775,0.88986766,-0.06199703,0.14124584,0.76583308,0.38120314,0.79651231,-0.85959250,0.20373355,1.47238803,0.17683670,1.53498721,1.04280221,0.03269596,0.00600119,-0.01466228,0.02807081,-0.04076260,-0.00484375,0.02644435,
-5.23275661,0.43919399,-0.10888530,0.05016575,0.64029443,1.03823543,0.16594397,-0.16284598,2.74001193,1.62655282,0.38626602,-0.30869997,-1.47508669,-0.44045016,-0.00673650,0.00013803,-0.01257203,0.03441478,0.00934491,-0.01208308,
1.36124587,-0.59335411,0.97477043,1.40202200,0.09721061,0.30480662,1.38739789,1.94086099,2.16125441,-0.54694128,-1.43500066,-0.93067849,-1.46527016,-0.15212603,0.01340803,0.00707244,0.05319726,0.00423650,-0.03810503,0.02426996,
-1.38453043,-0.03531124,-0.42631921,-0.38081622,0.78367656,0.02865732,-0.13223389,-0.09216104,-0.73263061,-2.07076335,-1.10977340,-0.18236133,1.12271106,2.27947283,-0.17573982,0.05392222,-0.12576962,-0.00269083,-0.01059477,0.02594305,
1.80099154,1.41246963,0.25629899,0.43995014,0.59763801,0.14903797,0.06292382,0.20718744,-0.51042849,3.02340794,2.86535525,-2.84906673,-0.29012212,3.03264618,-0.04726313,-0.00050974,0.04366440,0.02932971,0.07628254,0.06295799,
0.32715693,
0.69592667,
1.57934296,
-0.10530481,
1.01589167,
1.38218129,
-0.51650125,
-0.31863728,
-0.98979425,
1.69025242,
1.34471464,
0.36552635,
-0.11626835,
0.27321145,
1.11338615,
-0.66388464,
0.88337964,
1.48231566,
1.16131091,
0.39609018,
1.51019347,
0.51895672,
0.54197735,
0.41453543,
-0.39246103,
0.08523414,
0.26369974,
1.50373924,
1.13939297,
-0.17047974,
0.62178624,
-0.02847074,
0.38305843,-0.81207108,-0.03115095,-0.73329967,0.32278737,-0.30981675,-0.18435100,-1.04558337,0.57914442,-0.68392599,0.04678580,-0.37398481,0.35830408,-1.13483465,0.12433797,-0.08835238,-0.80183327,0.84771520,0.07205374,0.69577092,0.32850665,-2.96231937,0.87123460,1.22365212,0.32952744,2.48431373,-3.20677805,0.13395305,-0.07541613,-0.40733579,-0.78400284,-0.19716711,
0.23854430,-0.23274545,0.31551674,0.01449351,0.84525311,-0.16949549,-0.39476690,0.57227379,0.73361373,0.47617814,0.15128724,0.28234535,0.14120573,-0.16806635,0.40910146,0.10440559,0.69665056,0.30766362,0.10885659,0.13008459,0.22712699,-0.89138031,-0.25895244,0.75839388,-0.04632623,0.66382992,-0.92477000,0.25027722,-0.23623471,-0.34173757,-0.15275240,0.17757693,
0.21366477,-0.09083842,0.60560572,0.02771806,0.09456304,0.33690795,0.02586388,0.43072322,0.06038820,0.63144857,-0.14833522,0.67436075,-0.35172555,0.60937762,-0.16891120,0.51354253,0.13665292,-0.44541276,-0.54143083,0.50258869,0.18962465,-0.56718069,0.04450454,0.20250157,-0.00646492,-1.09642458,-0.80847728,0.36427549,0.51171112,-0.43108299,0.13812080,0.17545165,
0.33181381,-0.98347783,-0.68839020,-0.78327811,0.28907368,-1.42646825,-0.23286873,-0.86276668,0.35255048,-0.36336786,-0.19569036,-0.76570511,0.25080389,-1.00013936,0.00599161,-1.17373812,-1.24875724,0.36357960,0.20746720,-0.10362061,-0.22924934,-0.38200063,0.23615481,0.56492537,0.14185248,1.65351856,-1.95454001,0.24099058,-0.32861048,-0.47378814,-0.50925785,-1.03706431,
0.03096955,-0.07568573,-0.48911589,0.73681480,-0.62386751,0.31496450,0.50021070,0.62689757,0.49037594,0.67140472,-0.65356451,0.23592184,-0.15512808,-0.38793385,0.49616301,-0.52188730,-0.26890704,-0.31532344,0.06895199,0.26368281,0.44628680,0.48196584,0.19075051,-0.62814122,0.81330496,1.22530019,0.69824541,0.31011519,0.66318691,0.08494361,0.02912467,0.07568318,
-0.15740541,-0.41218114,0.09533980,0.14587845,-0.46126387,0.21036650,0.22491632,0.36249027,0.72537845,0.26426256,0.39484611,-0.06184167,-0.09384441,0.25882590,0.21746334,0.12481306,0.27976802,0.09166952,-0.10587607,0.35538521,0.31942084,0.01625448,0.49073786,-0.43420368,0.27413589,-2.42835593,-1.17954159,-0.02961860,-0.28591007,0.05085751,-0.26456547,0.09884176,
-0.01085008,-0.01458040,-0.63791800,-0.16559477,0.24113369,0.25126821,-0.71068245,0.11973181,0.03398772,-0.33302423,-0.12736371,0.34767970,-0.09198447,0.18841355,0.30389214,0.33901811,0.82772750,-0.03402486,-0.13729665,0.02119875,0.63144398,-1.38803089,-0.09497517,0.34592897,0.20023526,-0.98282677,-0.88645703,0.32932532,-0.58406454,0.02647743,-0.23949696,0.57711416,
-0.19929382,-0.59764332,-0.71069163,0.43540439,-0.95396328,-0.39447856,-0.00835673,0.10247412,0.48240852,-0.32362023,0.54706526,0.27071714,-0.03635233,-0.09942792,0.34340283,0.84210527,-0.20368449,0.42799568,0.89885974,0.26354718,0.02110419,-0.21065469,-0.16175702,0.72496909,0.20073053,-2.20235062,-0.08764113,0.45220399,-0.17655545,-0.00712560,0.13806549,-0.06588591,
0.58930808,0.11366099,0.42654169,0.34797117,0.30003685,0.00640187,0.07698851,0.12919690,0.42892948,0.76033598,-0.04413619,0.18075600,-0.11292608,-0.46587411,-0.17684798,0.16689698,-0.08924969,-0.41827390,-0.09127650,0.23501492,0.33783975,-0.48886606,0.36795503,-0.57479829,0.13760851,0.18347208,-0.69798726,-0.02266297,0.40192631,-0.05695673,0.03300037,0.00464713,
-0.31642193,0.30543983,-0.32415453,0.52243602,-0.12724438,0.35136554,0.00429708,0.61678320,0.65318704,0.29343197,-0.67806053,0.09414579,-0.23486032,-0.98923594,0.68772656,-0.81941640,0.13610263,-0.17623398,-0.15078142,0.06130472,0.32205570,0.24886137,-0.23997703,-0.20208694,0.55031461,1.31344414,0.27244732,0.40770206,0.98333806,0.25850967,0.09887632,-0.13510802,
-0.31415683,0.42665321,0.47380236,0.18512075,-0.17466675,0.50873011,0.25283077,0.62473923,0.03410308,0.85074860,0.36843660,-0.02957359,-0.68219030,-0.11370549,0.25603569,-0.39542186,0.30014548,-0.44569415,-0.28021368,-0.09611583,0.30080205,0.30448937,-0.26178432,-0.27564141,-0.03215688,-2.19469428,-0.81593466,0.13371155,-0.01321456,-0.42473492,0.23069142,0.11507627,
-0.47013152,0.08086102,0.11044119,-0.53994823,0.22396210,-0.09812735,-0.74929965,-0.20633829,0.13141651,-0.61799699,-0.30754933,0.12950283,0.78160793,0.77530509,-0.74704456,-0.00117913,-0.36224189,-0.43078569,-0.49007091,-0.44931522,-0.26735798,-0.23330605,0.12019186,0.48369399,-0.16552392,0.03372978,-1.22578311,-0.89857483,-0.23293839,0.48495048,-0.04983840,-0.37155607,
0.06441227,0.47333524,0.62633681,-0.14072590,-0.13424265,0.20668428,0.39818534,0.26791847,0.66734707,0.51048887,0.34479889,0.15992397,0.52928364,-0.32047975,-0.35023290,-0.25981379,0.03543628,-0.01417821,0.40838566,0.10887767,0.47686416,-6.68822002,0.63352555,0.19536792,0.08617911,0.70733804,-0.35284957,0.38499278,0.15972434,-0.08155799,0.07314090,-0.24066375,
0.29474661,0.43218595,0.36206487,-0.54109097,-0.76179469,0.16727504,-0.61412013,0.27531651,0.69531691,-0.03670757,0.24937481,-0.20392294,-0.17557076,-0.36355478,0.26160845,-0.48323849,-0.10350734,0.43499911,-0.82725692,0.30340406,0.03078119,0.20258410,0.41468981,-0.22570847,0.17918870,1.04917431,1.44323158,0.12872389,-0.09417011,-0.52117151,-0.07055988,-0.19161193,
0.28548628,0.07721259,0.02051147,-0.18406050,-0.07390434,0.03981021,-0.31065929,0.16929626,0.01504397,-0.08437333,-0.23179726,-0.16051202,-0.09124942,0.17164887,-0.21566685,-0.11640833,-0.20183648,0.10628732,0.00629876,-0.11449718,0.11439453,0.22030304,0.01374864,-0.05055713,-0.10395233,-0.15566574,-0.03752914,-0.04801960,-0.23469450,-0.05957169,-0.20289560,-0.31056350,
0.35049781,0.48071611,1.15882409,0.13490763,0.34255198,0.15975209,-0.39160430,0.27610105,-0.38579029,0.51809031,-0.32997647,-0.13055666,0.52399570,-0.66116375,-0.19614050,-0.27057439,-0.08774883,0.25232333,0.05045719,-0.27682960,0.65189606,0.13959269,0.55852520,-0.46016225,-0.91247368,-0.01060608,-1.20034981,-0.01065543,0.76771933,-0.02415813,-0.15581043,0.27117661,
-0.90133941,0.36677608,0.22814864,-0.03814904,0.66413832,0.18503793,-0.01742390,0.24406037,0.29569456,0.19202287,-0.27460590,0.12812589,-0.64588386,0.14788586,0.14333957,-0.40528890,0.36799255,0.38040495,-0.26315558,-0.03861540,-0.05574704,1.20271504,-0.46790361,0.62243563,-0.30122000,-0.94675839,0.50050068,0.18780610,-0.17270459,0.37373266,0.05263810,-0.14291716,
0.37250653,0.13859570,-0.53904516,0.18866758,0.10781591,0.13068934,0.79714346,0.05210616,0.05090327,-0.39947784,-0.26766542,0.09737504,0.19686477,0.55839807,0.13166910,0.69676393,-0.16136590,0.02618784,-0.61173093,0.20367193,0.49202210,0.63071501,0.06859257,-0.22187889,0.68337488,-0.36714572,0.02264296,-0.14452505,-1.09871876,0.14694773,-0.13160866,1.28519511,
0.15457417,0.68203151,0.18246680,0.27001679,0.04963804,-0.14284618,0.26933533,0.98820221,0.03714641,0.09417018,-0.19744480,-0.47905275,0.01709418,-0.65700489,0.75745517,0.01340936,0.29934382,-0.11570610,-0.34854111,-0.38678637,0.15881011,0.67049146,-0.55299491,0.61395717,-0.35903350,0.35512710,0.09609083,0.40353912,1.17850685,0.01953409,-0.03219501,0.23576523,
0.43832770,-1.08144295,0.03747003,0.18065102,-1.88116097,-0.08919375,0.05829398,-0.43829054,-0.10071930,-0.01864364,-0.60116303,0.48701629,-0.01876945,-1.47836864,0.36982796,-1.35574663,-0.36984265,-0.03241992,0.13989589,-0.56386018,-0.24400733,-2.31689906,0.36217502,-1.59876335,0.66414249,1.81068325,-0.94305998,0.13557665,-0.59005815,-0.72204250,0.78331894,0.15937203,
-0.46353346,-0.19727461,-0.58578473,0.25977886,0.27731696,-0.23337498,0.20827460,-0.08810021,0.87794346,-0.36379805,0.33395064,0.37515166,-0.26105413,-0.79102063,0.47757459,0.48070347,-0.61872554,0.04287553,0.15353128,0.53204834,-0.10826681,-2.34133816,0.40806729,0.06458108,0.08182538,0.90607882,-0.63312018,0.49061319,-0.05855817,0.43445569,-0.47115850,-0.36839053,
0.66931367,-0.19828871,0.01121778,0.51310438,0.11325409,-0.43698314,0.86976117,1.35887885,0.72083718,0.20709804,0.09711324,-0.16020472,0.06120875,0.12415044,0.78860891,0.49046439,-0.13463813,0.07144781,-0.05012417,0.08983415,0.17818068,0.45537162,0.18127422,0.55805272,0.54267979,0.96523142,0.78666770,0.20561269,-0.09300332,-0.38706115,0.03273360,0.50072777,
0.54698229,-0.61597747,0.75865209,-0.36513120,0.85812771,-0.14613540,-0.60544723,-0.77812785,0.50896031,0.46233499,-1.00089192,0.80558926,0.45170358,-0.66138685,-0.35895833,-1.20528424,-0.30506185,0.10932250,0.21751191,-0.76037264,-0.10736085,-3.37479591,0.56095248,-0.78588206,-0.15443249,-0.68729997,-2.22522211,0.22492121,0.95653993,-1.00455761,0.13339306,-0.24567430,
0.51402515,-0.17901096,-0.42374611,0.67355174,0.52899057,-0.53096348,0.15573002,0.43703851,0.15103287,-0.73800510,0.13656332,0.55104572,0.46772122,0.07740910,0.02656401,0.05817465,0.35322323,0.15894601,-0.72718990,-0.18426789,-0.19975203,-0.82556361,-0.16869900,1.37797141,0.30823821,0.49662676,-0.10646825,-0.05186758,0.32611889,-0.03660739,0.73988336,0.53688282,
-0.43150598,-1.06408966,0.10911770,0.43581912,-0.35419166,-0.05528613,-0.08514583,-0.45980957,0.15824838,0.48342428,-0.78392655,0.76781178,-0.12021641,0.17974590,0.20307904,-1.38361633,-0.21102715,-0.17032568,0.32333323,-0.36938459,-0.02092198,-2.67641807,0.38129303,0.10386285,0.48787069,1.09615588,-2.64074826,0.19421844,-0.17002685,-1.22998488,0.12543267,-0.16427848,
0.45788655,0.03226680,0.45948851,0.69637990,0.32394439,-0.07042426,0.64887154,0.59884536,-0.50517523,0.57588625,0.04403048,0.19040880,0.08968785,-0.58301014,-0.22277729,0.62872517,-0.47519463,-0.31927159,-0.32679445,0.21452974,-0.64923674,0.40663728,0.26946703,0.56126273,0.46181521,-1.58162212,-0.59746099,0.08058157,0.95943552,0.10486472,0.08041663,-0.28317553,
0.02577553,-0.36118823,0.14534454,-2.11728382,-0.11441831,-0.36970645,-0.18471503,-0.88883984,-0.07298062,-0.67784566,-0.17137906,0.59599590,1.34537768,-1.11483419,0.05056568,-0.00038243,-0.63339180,-1.02546823,-2.79416418,0.27298388,-0.87522703,-3.29423118,0.60689384,0.62154162,0.51164061,-0.42116025,-3.66247249,-1.84850836,-2.85849023,0.60410714,0.26391682,-0.33680505,
0.73704797,-0.02757286,0.07077731,0.37438545,-0.73229450,-0.60650009,0.19856587,-0.20988534,0.71935982,-0.16733183,-0.11301808,-0.31323549,0.32518268,0.22321063,0.53642565,-1.23943341,-0.32736358,-0.32297051,0.63119036,-2.18293166,0.23864722,-2.00615501,0.50103402,0.21477038,0.04240102,1.32277846,-1.66366398,0.17487773,0.30272374,-0.52145725,0.37250552,0.38733730,
-0.07007435,-0.36493915,-0.12005375,0.06020402,0.65823621,-0.10831552,0.60958111,0.28964597,0.51710457,0.02041578,0.35259077,0.28471050,0.40205139,-0.21111539,-0.17251518,0.15065506,-0.73623073,0.22280711,-0.13137564,0.16310465,0.10032579,-1.12760425,1.12654865,0.01518524,0.52726585,0.16446730,-2.28220224,-0.21920559,-0.48003203,0.55230093,0.22686195,0.17381386,
0.81138211,0.30740461,0.49487031,0.03115374,0.90962797,-0.50192302,-0.25884140,0.27446038,0.13271129,0.02714596,0.77065420,-0.09122165,0.53723574,-0.51208830,0.27009642,0.17198019,-0.20320493,0.17983985,0.06911718,-0.07799177,0.03253891,-0.11336087,0.33608246,0.65033317,-0.44677028,0.89061040,0.17827804,0.27691630,0.62861514,-0.39914453,0.12497871,-0.14176957,
0.54286599,-0.07210600,0.33306977,-0.47121590,-0.88349837,0.38586351,-0.57137495,0.22102834,0.76982290,-0.46432546,0.46514532,0.05436675,-0.05996573,-0.36616012,0.22416335,-0.11038740,0.01537760,0.44019613,-0.36228880,0.04616462,0.13460678,-1.53855348,0.64722735,-0.09445252,0.38980147,1.29771793,0.57192415,0.20454220,-0.40510038,-0.16756725,-0.14491397,0.32303384,
0.10366203,-0.09577282,0.31730378,0.43109626,0.37716034,0.26534510,0.07126715,-1.23825109,-0.42056924,0.11798036,0.59356034,0.41860825,-0.17366730,-0.88325095,0.19031951,-2.22506356,0.06026577,-0.65772420,-0.04895077,0.52672929,0.02911317,-4.72621822,0.32759842,-0.09087470,0.12732539,1.51200414,-2.23943877,0.11785811,-0.28706095,-2.15563583,0.26032320,0.02310177,
0.13249418,
1.08153582,
0.21579808,
0.05334583,
1.17467022,
1.05464435,
0.41990060,
-0.14991020,
0.99376506,
1.26333225,
0.91045535,
-0.59635681,
1.67988813,
0.82690156,
-0.19817217,
1.21268308,
0.66183013,
-0.95040405,
1.01375794,
0.64982009,
0.67807472,
0.47669402,
0.42317438,
-0.57753277,
0.53696263,
0.38499939,
-0.51128805,
-0.14978708,
-0.10868381,
1.33255386,
0.91535527,
0.52436459,
1.25959694,0.33960968,0.30118510,1.18905020,0.22469014,0.46199572,0.27002260,0.68960589,0.34352896,0.45229781,0.72857040,-0.27414662,1.43311596,0.95778227,0.16485371,0.70882070,0.62388659,-0.54144692,0.89053053,-0.05098852,0.21579534,-0.02650530,1.19782817,0.72536570,1.72657752,0.31883779,-0.58805817,0.35028917,0.49710038,0.38472772,0.64001799,1.56715429,
-1.08311689,-0.51587689,0.11626915,-0.29093745,0.70582104,0.11497197,0.74538666,0.53149456,0.10103144,0.42521971,0.46098447,-0.33642709,2.06162643,1.55967319,-0.11281951,-0.46242297,0.12365615,0.51832050,0.46790549,0.73512894,1.14512050,0.73079604,0.33179474,0.81456447,0.71133661,1.02548027,-0.01089623,0.81955582,0.30188444,0.12885636,-3.62521386,0.69420129,
-0.49537155,0.56178212,0.32340822,-0.16093120,0.43299600,0.46478948,1.01043749,0.35195315,0.20215590,0.63860714,0.74293131,-0.13072936,1.15075541,0.61137956,-0.21414524,-0.38075224,0.32943025,0.45455745,0.18690543,-0.51528555,0.75590813,0.54668593,2.18091154,1.36349881,0.84424818,-0.17636220,-0.09104143,1.22794104,-2.14629245,0.33767447,0.17198166,2.30632067,
-0.40858337,0.32869777,0.18407986,-0.05922750,0.09309366,0.42712563,0.42720777,0.34633687,0.16340850,-0.06434047,0.60476995,0.00116248,1.37920821,0.51178521,0.15024045,0.69088411,0.39900485,0.49131373,0.28357494,-1.19752264,0.70481062,0.74285209,1.08833170,0.61531258,-0.18182340,0.38071468,0.38737351,1.13390720,-0.37493536,0.55948806,0.34834641,1.75947154,
1.04437292,0.59200585,0.53514546,0.42726061,0.51803100,0.74924517,0.47024006,0.39723822,0.60366279,0.15473524,0.28437489,-0.39296475,1.24331284,0.67165053,-0.29591677,0.13162877,1.31522655,-0.17863555,-0.23907952,1.29452753,0.41851002,0.43843341,2.45010495,0.68977398,0.02021354,0.59187949,0.39696670,-0.55779946,0.01192949,0.30513337,0.43794215,1.43146098,
1.52057981,0.23790683,-0.68548018,2.27273297,0.51716626,1.36986566,0.34438211,0.46644953,-0.08731870,0.70022529,1.33870029,-0.36686987,1.39313495,0.65577304,-0.10213174,0.11249274,0.02110656,-0.27533191,0.39907691,1.40838444,0.73377764,0.57936305,-0.58426505,0.56170034,1.66923797,-0.10960391,-0.99521905,0.95486712,0.47208560,0.59279764,0.19344087,0.93882680,
1.42888439,0.12698872,0.40327737,0.12609853,0.78650135,0.09289338,0.40297991,-1.44208634,0.44137093,0.60726225,0.62027007,0.60600930,1.27960718,0.60665005,0.16772042,0.87108254,0.01985658,0.57330656,0.15916134,0.81890464,-0.36380771,0.16847466,1.31312752,1.02018940,1.63098943,-0.00986043,2.75125504,1.05744445,0.42651406,-0.52157563,0.40277943,1.59750915,
1.72726083,
-0.01935488,
0.34006333,
0.23910128,
0.98178667,
1.22940254,
0.63620019,
