// Neural Network File Format by Kyle Julian, Stanford 2016
3,18,9,18,
18,16,16,9,
0,
0,0,0,0,0,0,0,0,0,0,0,0,0,0,0,0,0,0,
1,8,8,8,8,8,8,8,8,8,1,1,1,1,1,1,1,1,
0,0,0,0,0,0,0,0,0,0,0,0,0,0,0,0,0,0,0,
1,1,1,1,1,1,1,1,1,1,1,1,1,1,1,1,1,1,1,
0.40526500,0.22466171,0.10387415,0.20745783,-0.00026406,0.17359649,-0.08319827,0.01656094,0.11924409,0.22555624,0.28477052,-1.00033760,0.07208718,2.59606504,-1.97809577,0.55742687,0.67028862,0.49101835,
-0.89408177,1.16866219,0.53533340,0.36811918,0.27849022,0.16771589,0.02539778,0.11804482,-0.06840854,0.00470436,1.86321390,0.23866461,1.79211402,0.15487260,1.13410497,0.69754392,2.27932358,-0.47653970,
0.18334840,-0.22986734,-0.17666540,-0.06690653,-0.17533965,-0.05454108,-0.10002930,0.18389352,-0.17111160,-0.10898133,0.06495692,-0.07358399,-0.18134031,0.03814413,-0.00398026,-0.01349188,-0.23444392,-0.03236386,
1.28114831,0.36692813,0.61263746,0.15080793,-0.09941928,0.02579034,0.17998175,0.06459642,-0.09882984,-0.29117742,-1.16375542,-2.39748430,-0.74598587,1.00365269,1.23510206,-0.04323964,2.16082120,0.50884253,
2.81217027,0.02367114,0.07764792,0.01487403,0.02613457,-0.26019794,-0.04699505,-0.03674624,0.09101125,0.08700842,0.41353121,-0.11327777,-2.01746988,-1.55785096,-0.05414199,0.84355557,0.63957614,0.48232821,
-1.17732704,0.28391019,0.20607568,0.12657113,-0.05176087,0.13235506,0.23623982,0.00059926,0.14325561,0.49373886,0.15845706,0.06774679,0.16872135,-0.51098746,-0.07207924,-2.33347654,1.53948951,1.89766550,
2.47614813,0.46443534,0.94059879,0.13945253,-0.02104926,-0.07001230,-0.09037746,-0.05669197,-0.08202799,0.45430779,-1.21031785,0.64087075,0.89893568,-0.30134076,-0.17644289,0.19554751,-0.05164645,1.11974788,
-2.86182070,0.18276070,0.93797964,0.09417227,-0.01241183,-0.01206588,-0.23661228,-0.05144464,-0.10312694,0.03017456,-0.70276266,1.54741096,-0.09608673,0.30872059,-0.16229989,-0.99594188,0.15436852,0.42301768,
1.50561500,0.12143248,0.38260430,0.14722279,0.20707604,0.22942287,0.32650149,0.26855290,0.06199702,0.41125375,0.97774595,-0.24896146,-0.26242679,0.06011562,1.59355092,0.38990739,-1.66565311,-0.83242333,
0.33068094,0.07571648,0.69470453,0.34610662,0.08560441,0.33290631,0.30059418,0.09485527,0.14747158,-0.00706554,-0.26188445,1.77581418,-0.78550851,-0.10402980,-1.77527225,0.82443017,1.33898520,-0.71999121,
-1.20088494,0.28158200,0.09016477,0.36005333,0.10348636,0.12347019,0.06552844,0.05855670,0.09342457,0.24808948,-0.76219803,0.33221656,0.41599575,1.92543745,1.85911942,-0.41476530,-1.87213778,-0.31203550,
-1.40575624,1.15653741,0.73662239,0.32878029,0.31759471,0.24183597,0.11270628,0.25550041,-0.04751625,0.01204756,1.19196665,0.69950074,-0.07741842,0.17039680,0.63390577,1.94008446,-0.01919175,3.05071759,
-1.86402917,0.19087896,0.08784239,0.20824669,0.05351217,0.16848826,0.03536199,0.08011559,-0.03578475,0.39961514,-1.44375539,-0.86278236,0.43938011,-0.25366294,0.81648719,1.34551322,-0.22699504,-0.05572832,
-0.98331422,0.57762510,-0.89811593,0.12532264,0.11197871,0.23786828,0.26659203,0.37967205,0.20585471,0.38991043,-2.21972895,1.83350158,-0.02976593,0.62749815,0.78516334,0.70667034,1.14472342,0.17775172,
1.35267782,0.36809674,-2.91171885,0.12642433,0.13843654,0.09428408,0.10312586,0.10921233,-0.05041864,0.14401722,-0.49215195,-0.02833153,-0.13027981,-0.10724944,-0.10403906,0.04941889,0.54178214,0.70643407,
-0.83688462,-0.22151025,0.85565430,0.26723841,0.27339283,0.04262045,0.11869256,0.31489429,0.15497984,0.17501384,-1.24768174,0.03024610,1.17675018,0.11178549,-2.17314482,0.67036146,-0.87578893,0.36665067,
0.03642626,
0.04602727,
-0.07900354,
1.59076560,
0.12828714,
-0.36858532,
-0.30720875,
1.33103633,
-0.66090298,
0.74631286,
0.60813361,
-0.01859862,
1.49910176,
0.15510270,
0.84235996,
0.61666846,
0.01078381,1.19640815,0.21433178,-0.22904317,0.24916139,0.56696683,0.29879177,0.59090155,0.69896686,0.12663111,0.23656119,1.01348960,-0.39902005,0.52337897,-0.31947610,-0.49112189,
-0.05174487,0.09920910,0.06164423,-0.17316094,-0.32394913,0.20397502,-0.78158230,-0.78738409,-0.64639747,-0.50767416,0.23486762,-0.14874829,0.84589547,0.78310436,1.58726895,-0.22985898,
0.38659126,0.57322448,-0.05647302,-0.15899773,0.42360723,0.44964969,0.67846799,-0.97079223,-0.61842614,0.43969142,-1.12744474,0.11399985,-0.21594244,0.29054320,-0.49898723,0.20280862,
0.77583963,-0.77308404,-0.21083060,0.37423378,0.35086036,-0.69762456,0.37761801,-0.31325379,0.06621148,0.44892138,-0.85497272,-0.05061104,-0.32381332,0.22255743,0.05093478,0.74113923,
0.45092663,0.51602530,-0.03869462,-0.09321861,-0.23905206,0.66613138,-0.18145235,-0.19377664,-0.00040686,-0.01134474,0.56027472,1.22779286,0.63865483,-0.22815664,-0.27942169,0.52915841,
-0.51765454,-0.82173198,-0.21223029,-0.21615170,1.29797268,0.40902880,0.29641575,0.79291850,0.00568848,0.50275791,0.01307776,0.23573047,0.61215335,-0.08533090,0.60459369,0.47583231,
0.62838101,-0.89530724,0.19786805,0.49299207,0.48222017,0.13003643,-0.28834012,0.53626639,0.83460283,0.09115602,0.58934307,0.14441052,0.21364257,-0.06959587,-0.99749810,0.43468183,
-1.02829409,-0.61680222,0.01402089,0.07298867,0.46462330,-0.11260107,0.77659279,-0.02515934,0.39503464,-0.36919570,0.02142047,0.86494607,0.78031313,0.23304196,0.53033525,-0.03050192,
0.45447978,-0.29598066,0.05596605,0.61083007,0.77535647,0.64008981,0.69602382,-0.02254080,0.04027627,-0.20751897,0.13545670,-0.64475912,0.80189210,-0.26175439,1.15573919,-0.11580313,
-0.99539542,0.79177284,0.09073275,0.48196462,-0.21844038,0.45754421,0.18191358,0.17575945,-0.56809342,-0.03455812,0.39840567,-0.21538776,0.52239454,-0.00435869,-0.09137841,0.47641152,
0.05828502,-0.10503589,0.10098687,-0.49966496,1.07511091,0.47105175,0.30065775,-1.98217988,0.24247220,0.06856482,-0.60899746,-0.03728671,0.13007484,-0.36958700,-1.37800694,0.23444012,
0.80916584,1.06913042,-0.12817812,0.91870779,-0.34760916,-0.95745915,-0.00205599,0.88260180,-0.33948657,-0.05602432,0.45874161,0.97031212,0.69682395,0.37901720,-0.00046435,-0.01546114,
0.40095299,-0.61137193,0.23604715,-0.24610108,-0.22548184,0.33292222,0.39687055,1.50839972,-0.38889462,0.61240673,0.80891979,-0.21874940,0.04421991,0.85070574,1.55682516,0.23248206,
-0.40351900,0.26859313,0.09736490,-0.20107664,1.06872439,-0.36124736,-0.52549887,0.50434524,-0.24869572,0.65256035,-0.42070225,0.08193827,0.99700254,0.06295452,0.33982107,0.28295887,
-0.06729272,0.57736403,0.06058732,0.82887244,1.07023871,0.36879966,-0.60688770,0.95551395,0.12657206,-0.00472910,0.15511166,0.05380847,0.29870242,0.18415900,-0.43578503,-0.75739944,
0.30235451,0.21601492,-0.03722587,-0.68949544,0.48079506,-0.67860258,0.36761558,-0.13151807,0.93451077,-0.07412397,0.69095927,-0.71059948,0.34536654,-0.05166440,0.08749940,0.18640925,
-0.52597445,
-0.38929737,
-0.01637924,
-0.47307640,
0.45046964,
0.24821876,
-0.65146708,
0.26389590,
0.73737657,
0.63408023,
-1.56939685,
1.25370789,
0.73799133,
0.87461603,
1.25976610,
-0.66471511,
0.16791041,1.14300883,-0.26371720,-0.42247492,1.33174491,-0.20833328,-0.43210173,-0.26814607,-0.09636231,0.26851863,0.44084463,0.10829335,0.08860566,0.81441623,0.59831208,0.19941361,
0.98206258,2.04541063,0.41383180,-0.45801744,0.93982089,-0.27844167,0.38926774,-0.38267303,-0.32909963,-0.26258004,0.68016225,0.03829924,-0.67808795,-0.10997194,0.39130324,0.22743432,
1.14748847,1.23911238,0.39512849,-0.53239387,-0.23260796,0.17952853,-0.07542917,0.17159407,-0.90795833,0.06436777,0.91032434,0.40919650,0.30965769,0.03769818,0.14962307,-0.07658017,
0.56710744,0.87991804,0.57281482,-0.00237434,0.67434466,-0.40088421,-0.63208693,0.02015349,-0.26397282,1.48588860,-0.59933388,0.32791620,-0.06045016,-0.11315009,-0.72231644,0.43563616,
0.11353484,0.79341513,0.13134727,-0.40426198,0.41346973,-0.35087711,-0.09261658,-0.45654765,0.01445840,-0.16127208,-0.43738332,1.29154480,0.40233138,-1.01351249,0.02104403,0.29294133,
0.76389581,1.03271186,-0.88421923,0.69643551,-0.24178827,-0.32762188,-0.42303729,0.64158165,0.01920146,0.80860585,-0.34452581,0.44387501,-0.19439469,-0.52381432,1.06036925,0.58455217,
-0.13224612,0.92942405,0.28700033,-0.62299079,0.29630938,0.18807094,-0.25359130,0.62935019,-0.18494284,-0.33089823,0.67262387,1.23452675,-0.41631907,0.68459511,0.18196931,0.30190936,
0.23896970,1.20549810,0.78874707,0.54650652,-0.28263772,0.10370143,-0.73791641,-1.04876113,0.41878754,0.58826840,0.48718578,0.71302128,-0.18417071,0.89726812,1.29876590,0.70618063,
0.28159067,1.23973739,0.45020780,-0.03739386,0.96688664,0.05520739,-0.21718305,0.59194446,0.22995181,-0.14855649,0.02890319,0.26349950,-0.00969349,-0.38766897,0.34385967,-1.41201043,
0.94945365,
-1.61176085,
-0.13368182,
0.22896686,
0.93222952,
0.41249248,
0.68907702,
1.39966738,
0.38177416,
