// Neural Network File Format by Kyle Julian, Stanford 2016
3,14,5,16,
14,16,16,5,
0,
0,0,0,0,0,0,0,0,0,0,0,0,0,0,
1,4,4,4,4,4,1,1,1,1,50,50,50,50,
0,0,0,0,0,0,0,0,0,0,0,0,0,0,0,
1,1,1,1,1,1,1,1,1,1,1,1,1,1,1,
-4.80611229,-0.79124862,2.09152579,1.43755829,-0.32382733,3.77473140,-1.42617893,-0.97675359,0.14394285,1.92019367,-0.02101037,0.07062040,0.00941656,0.03552224,
-6.14259148,1.42139959,2.49696279,0.31176406,-1.20257878,2.18894148,0.62594092,1.05764854,1.92448843,2.02964258,-0.01240653,0.02267593,0.02255103,0.00548173,
2.13024950,-0.36218658,0.20939896,1.98054075,1.89689815,-2.18595195,-1.43489695,1.76152277,2.53020740,-4.31796837,-0.01365271,0.03949048,0.00274979,0.03171256,
-2.45716786,-0.05239153,3.84192562,0.17107068,-0.73391759,1.94531250,2.74907017,2.65212536,-2.88372993,-2.83574820,-0.00452973,0.03674851,0.00293049,0.01751123,
1.86436665,1.81958914,0.08951421,-3.44814372,1.62594736,3.96732163,6.41266775,1.57653689,0.22696778,-0.62124199,0.00256768,0.01431755,-0.02605081,-0.02423030,
-6.89650297,-0.35334334,1.56342804,0.73881680,1.97021139,0.40122706,-1.56531954,-1.21222305,2.06554294,-0.57441920,0.00038231,0.04475237,0.02462226,-0.02256061,
0.19243035,2.87304258,-0.89570832,0.07355447,0.86564243,-3.15260196,1.41401732,2.17415929,2.51689410,3.04043984,-0.02993076,0.20209116,0.06577259,0.04067931,
-1.90195847,0.12534586,-1.43844712,2.13483310,-0.39694250,-11.54066849,-6.75566292,-0.72948253,2.69487667,-1.27742684,0.00934523,-0.00019102,-0.02448541,-0.03983173,
6.72027445,1.56113267,-0.61845118,-2.66879845,-0.15482111,0.74487978,1.35449910,-0.21726415,3.55131841,-0.49340519,0.00542264,-0.00015576,-0.00841756,-0.00850697,
2.93808508,0.09315117,2.40171099,1.46977937,-0.00403635,0.34872356,-0.18460789,-2.35612750,-0.76351571,5.20985937,-0.01533722,0.05450933,0.00894579,-0.01404277,
-0.02541405,1.51494348,0.64833176,0.08481808,-0.19774261,1.64243650,4.40397167,3.83385730,0.46661308,-4.28190327,-0.01037190,0.03110224,0.03753596,-0.01313718,
7.48073673,0.37098598,-2.46978378,3.25692296,-1.52008235,0.58201277,2.37785888,1.03595066,1.36815929,-2.11076355,-0.02412364,-0.02507550,-0.02948329,0.03925828,
5.60146904,1.24976540,-1.20589340,1.50379729,1.09276032,0.79205805,1.27151787,2.38764715,-0.46575984,0.40496317,-0.02691942,0.05923915,0.02526170,-0.01960899,
-0.90709507,-0.46442330,0.91295481,1.38637781,0.30668175,-0.53078383,2.47277141,-5.35034704,1.52739823,0.02004114,-0.00520528,0.00704483,0.01398433,0.01036557,
4.77580547,-1.19343829,3.53177047,1.56944692,0.60300303,-1.74568009,-12.03050709,-1.04050732,-2.23966837,2.50792313,-0.00444285,0.00240117,0.01833965,-0.01171742,
-1.26965654,1.30406654,0.74246985,0.87179899,0.28874600,-1.25752807,-1.67273331,0.40387923,-0.16241108,5.10519028,0.03036621,-0.07722472,-0.03052317,-0.01150164,
1.18953419,
3.32751656,
1.17284977,
1.02065408,
0.42679131,
2.51044369,
1.79424024,
0.27428633,
-1.19154179,
0.46692619,
1.64362991,
-0.93792593,
-0.01383648,
1.06223285,
0.05835680,
2.25968981,
0.67778426,0.27101150,-0.47986880,-0.34104633,0.80652946,0.20878769,0.48437825,-3.72479272,-0.06991637,0.95931453,-0.87284869,0.19377625,0.79675126,1.24206614,-1.23412991,2.01923871,
-1.26900887,-1.53662717,0.13399276,-0.44174266,-1.98641980,0.30647460,-0.04899768,2.68073750,-0.07980950,-1.22103679,-1.44840956,-1.11792231,-0.78446543,0.96567875,-0.53955418,0.21903986,
-0.19884337,0.19932319,-0.16335399,-0.11384694,-0.10603023,-0.02634816,-0.03622542,-0.09348956,-0.12858389,-0.02153851,-0.20133363,-0.15174353,-0.05383726,-0.03272768,-0.08926848,0.10979881,
0.03247047,0.14525855,1.90766799,0.90030390,0.02272970,0.46698794,-0.27836704,2.21689129,1.12321639,-0.38115382,1.53097618,0.02076309,0.25295737,0.20446724,0.84556580,-1.19790244,
0.70035565,1.64335036,0.67581713,0.60469908,-0.27845448,1.65553391,-0.01586563,-1.08569789,-1.06404173,-0.06706439,0.91757780,-0.05443955,-0.04403065,-1.67621613,-0.09591074,1.87101686,
-0.62908942,-0.57990384,-0.11467904,-0.13872713,0.48736677,0.06713846,0.15014195,-1.12357664,2.33861876,-0.01797776,-0.83214092,2.21553659,0.59841037,0.96979594,2.00009751,-0.55911398,
-0.39064342,1.71827507,-1.14581501,0.93572032,0.15520433,-0.34644723,1.43204129,2.35704923,0.08239090,0.91843295,0.40335673,0.70763648,-0.11041851,-0.15651263,-0.49685824,2.19945574,
0.05319355,0.87353677,-0.10948939,0.24893923,1.97574008,-0.89629090,0.04545606,-4.33257008,0.97828776,-0.28771740,1.09021378,-0.95137805,-0.38056499,0.00739235,0.83134854,-0.89479673,
-0.68428087,-1.35633576,-1.00692296,-1.39036894,0.56992716,-0.85148293,0.11708353,-5.20544434,2.03507948,-0.72147572,0.30884689,1.20249760,1.10747421,-1.65159404,5.40784073,-0.80965298,
-0.36447707,-0.05523683,1.03559101,-0.14108473,1.61889768,-0.37110558,-0.17055273,-1.25078583,1.95451498,-1.69061208,1.38150346,-0.16201842,0.47679055,0.49447161,1.55043280,-1.20286608,
-2.14436030,-0.52956146,-0.64108968,0.13451056,0.40701535,-2.05356050,1.06462967,-2.11649060,3.98844719,0.28757322,0.54585165,0.89538598,0.49729741,-2.86050606,1.80964649,-0.07405990,
-0.00297180,0.00362599,-0.20337358,-0.18592000,0.06299411,-0.21927060,-0.13638841,0.17321451,-0.24547921,-0.14401102,0.06494716,-0.00935245,0.12351526,0.08171479,0.15260965,-0.24288599,
-0.59974045,-0.02896226,0.73209327,0.50755143,-0.50355941,-0.00442981,-0.15323222,0.24090478,-3.34509110,1.28367221,0.33562976,0.40320966,0.40932897,0.36843425,-0.31623814,0.62154090,
-1.53015554,-2.26155496,1.54295647,0.23008001,-1.25196731,-0.27266338,0.75204265,0.06365661,1.41049874,-0.46561387,-1.28996384,0.41456911,0.09678448,1.49834013,1.18090594,-0.32481039,
-0.54702073,1.11506379,1.65902615,-1.32672727,0.28313768,1.21209025,0.14434624,-0.18833950,0.58037728,-1.05721569,0.69189930,1.28619277,-0.50612700,1.89801574,0.71363062,0.05394821,
-0.93617976,-1.62542248,0.87447321,0.30434006,-0.96872896,0.53707612,0.31846446,2.38607311,-2.00154757,0.24407586,-0.35830027,-0.14923072,0.15732600,0.66393816,-0.45752069,1.04394984,
3.25851941,
0.32733253,
-0.29234326,
-1.46319759,
3.96267390,
-2.94736481,
2.43579197,
-0.41416052,
-0.35609522,
1.02315855,
-1.10895467,
-0.28009322,
1.46457541,
-1.05384946,
2.93966961,
0.63540244,
1.17416632,1.82610309,-0.16650991,-0.58831328,1.57937992,-2.52655768,0.16177487,-0.50438070,-5.82947063,1.30819428,-6.46194696,-0.01698381,1.01982677,-1.74691963,0.99981207,1.94357181,
1.31685901,1.11277533,0.13151234,-0.66941416,-0.86445218,-1.01319337,0.70814216,0.67130059,-5.11519909,1.96788538,0.20430601,-0.06918918,2.87282515,-5.25563908,0.98909247,-0.52648658,
0.36638826,0.47435418,0.10370705,-0.19175851,1.40003693,-1.03586209,1.44981706,-2.79453301,0.38564384,3.59571934,0.29575273,0.10513108,0.58798546,0.74493665,-1.16934609,2.32620668,
-0.05741236,0.90794694,-0.02474340,-0.24003223,0.73603761,0.75910074,1.19745982,0.04005642,0.85859853,0.09161112,-0.78287244,-0.19226034,-2.31727862,0.93377721,2.03400183,2.54171491,
1.44698703,0.55280030,0.05442493,-1.84112537,0.29084966,0.04153575,1.79455137,-0.60951871,1.49193430,1.53802180,-1.18760526,0.00263066,-0.20679119,2.57756758,-0.37852734,-1.93558156,
4.71863508,
2.28192019,
2.04957294,
2.45109773,
0.86342698,
