// Neural Network File Format by Kyle Julian, Stanford 2016
3,4,9,16,
4,16,16,9,
0,
0,0,-12,-35,
11,34,12,35,
0,0,0,0,0,
1,1,1,1,1,
4.13151e-01,1.35834e-01,3.02662e+00,3.31930e-01,
8.29189e-01,-3.00091e-02,-8.34913e-01,-3.11553e-01,
-2.44124e+00,1.00130e-01,1.00505e-01,1.44401e+00,
1.32442e+00,-1.97730e-02,1.86437e+00,-2.09131e-01,
4.67340e-02,-2.09719e+00,-4.05061e-01,-1.97325e+00,
1.39141e+00,-6.61945e-02,5.42614e-01,-3.38354e-01,
-4.80205e-01,-3.30299e+00,7.64728e-01,-4.58208e+00,
-4.81630e-01,-5.59664e-02,-4.08374e-01,-1.59562e-02,
-2.86125e-01,-1.20857e-01,3.94418e-02,-1.49998e-01,
-3.80165e-01,-2.62225e-02,-1.37169e-01,-1.79622e-01,
2.75160e-02,-7.22265e-01,5.50505e-01,-1.79201e+00,
-4.57498e-01,-2.40181e-01,4.73697e-02,-3.81799e-01,
-2.64574e-01,-4.00680e-01,2.30694e-01,-2.15029e-02,
-1.01020e+00,1.14724e-01,-5.49405e-01,4.65554e-01,
9.27449e-02,-1.61582e-01,8.39506e-01,-7.91138e-01,
-1.31611e-01,1.67289e-01,7.45579e-01,5.33905e-01,
9.93760e-01,
5.68480e+00,
-1.09262e+00,
-3.01875e+00,
-2.86997e+00,
-4.48399e+00,
-2.12343e+00,
-2.16661e-02,
-3.56269e-01,
-3.98773e-01,
-2.50174e+00,
-3.59845e-01,
-2.20625e-02,
3.22021e+00,
3.77889e+00,
2.57301e+00,
-2.13984e-01,2.39162e+00,1.36353e+00,-2.30156e+00,-7.85517e-01,-8.17578e-01,-2.46904e+00,-1.73662e-01,-1.63859e-01,2.41505e-01,-1.46623e+00,-1.27142e-01,-1.30308e-01,8.05645e-01,8.38806e-01,-1.49532e-01,
5.63752e-02,-2.19635e-01,2.15582e-01,-3.13306e-03,-1.32349e-01,-1.69422e-01,-2.31306e-01,2.94894e-02,-1.27535e-01,2.96267e-02,-1.92523e-01,1.73003e-01,-1.58570e-01,3.22314e-02,-2.39687e-02,-2.08399e-01,
-4.79624e-01,4.98663e-01,2.88873e+00,2.85953e+00,1.65324e+00,5.78728e-01,1.21957e+00,2.26045e-01,1.23221e-01,-2.08824e-01,2.50703e+00,-1.46766e-01,2.21992e-01,1.45328e+00,-7.92406e-01,-1.54388e+00,
2.83112e-01,1.14648e+00,-1.33178e+00,-5.60871e-01,-4.73575e-01,-1.28139e+00,-2.50247e+00,4.41387e-02,-9.83515e-02,1.33042e-01,-3.38878e+00,-1.57738e-01,7.93365e-02,-1.52443e+00,1.02436e+00,-2.07626e-01,
-2.78653e+00,6.25061e-01,1.58762e-01,-2.41577e+00,-1.93936e+00,-3.99297e+00,7.88617e-01,1.13534e-01,-4.26205e-02,-7.55711e-02,1.87807e-01,-2.16578e-02,-1.70739e-01,8.87126e-01,-2.33383e+00,-7.13666e-01,
-3.85782e+00,8.19274e-01,2.54941e-01,-3.34401e+00,-2.40171e+00,-6.13616e+00,8.29393e-01,-8.33099e-02,2.21186e-01,-1.85630e-01,-2.50983e-01,1.64565e-01,-1.22195e-01,4.72165e-01,-2.69154e+00,-7.00059e-01,
-2.16343e+00,1.60820e+00,5.10756e-01,-2.96175e+00,-2.32204e+00,-3.34442e+00,-1.43573e+00,1.76531e-01,1.21252e-01,-9.78033e-02,-1.06236e+00,1.81335e-01,3.41974e-02,2.55121e+00,-1.12174e+00,-1.45208e+00,
-3.78752e+00,3.33466e+00,-7.08613e-01,-6.23106e+00,-1.46219e+00,-6.79110e+00,9.92819e-01,-1.02359e-01,1.10673e-01,-2.44876e-01,1.02318e+00,1.05717e-01,-1.05715e-01,2.97195e+00,-1.40539e-01,-1.85496e+00,
-6.92480e-01,3.67444e+00,2.81749e-01,-6.43351e+00,-5.36184e-01,-3.49175e+00,1.84077e-01,-1.39479e-01,-1.12370e-01,-2.25107e-02,-6.08385e-01,-5.62749e-02,-1.56220e-01,-4.92019e-01,2.66694e-01,6.43955e-01,
1.40322e+00,9.03467e-02,-5.17355e-01,-4.97404e+00,-6.72192e-01,-4.21808e+00,-4.37820e+00,-1.11190e-01,7.88035e-02,2.84545e-02,-2.14214e+00,2.25858e-01,-1.64386e-01,2.42714e-01,-3.38728e-01,4.41714e-01,
-2.86127e-01,-9.34641e-02,1.18307e+00,1.84563e+00,-4.68279e-01,-1.77201e-01,-2.21165e+00,-3.43931e-03,-1.53101e-01,1.45847e-01,3.61160e-01,-1.27075e-01,-6.36272e-02,1.60074e-01,-4.29926e-01,-1.45976e-01,
1.48588e+00,1.89851e+00,-1.70884e-01,4.36206e+00,2.01540e+00,3.01819e+00,7.37828e+00,1.38907e-01,-1.94896e-01,-1.17652e-01,6.03219e+00,3.83534e-02,1.40974e-01,1.24722e+00,2.16967e+00,2.49848e-01,
-2.56568e-01,2.95193e-01,-4.96081e-01,-1.10488e-01,-1.19818e+00,1.92559e-01,-6.42613e-01,-1.09130e-01,-2.01918e-01,-6.74002e-02,-2.21754e+00,1.43389e-02,1.35025e-01,-7.46273e-01,3.29583e-01,4.20168e-01,
4.10071e-01,1.57702e+00,-6.01123e-02,1.29188e+00,-1.49898e+00,1.37207e+00,3.67185e+00,1.98010e-01,-9.35021e-03,-5.60096e-02,1.73927e+00,-3.10029e-02,1.67930e-01,9.01887e-01,1.13759e+00,-3.78268e-01,
-8.99796e-01,1.91193e+00,-2.57967e-01,2.27969e+00,1.45126e+00,8.75685e-01,7.83566e+00,1.31051e-01,-1.54319e-01,-2.32606e-01,5.07555e+00,1.43589e-01,-1.22474e-01,-3.40066e+00,1.14637e+00,-1.82212e+00,
-2.81357e+00,5.70660e-01,1.73385e-01,-2.08247e+00,-1.57453e+00,-5.01802e+00,5.07451e-01,-2.13476e-01,-3.99968e-03,1.52935e-01,1.77731e-01,2.08252e-01,-7.02841e-02,8.27713e-01,-2.30864e+00,-6.22693e-01,
1.38835e+00,
3.16491e-02,
-6.58831e-01,
1.93591e+00,
-3.35781e-01,
8.78239e-02,
-5.93144e-01,
2.07292e+00,
3.40034e+00,
-5.49046e-02,
-2.82666e-01,
8.14387e-01,
2.02630e-01,
1.02652e+00,
9.40965e-01,
-1.59503e-01,
-1.22162e-01,-2.06861e-02,8.00992e-01,1.55113e+00,4.41593e-01,-4.30268e-01,1.43900e+00,2.51582e-01,-2.14347e+00,-3.67085e+00,1.83506e+00,-1.57621e-01,1.68253e+00,-3.70423e-01,-3.82891e-01,2.18893e-01,
1.29065e-01,2.38862e-01,1.33454e+00,1.78931e+00,-4.95487e-01,-7.52931e-01,2.40688e-01,-3.08843e+00,-4.65178e-01,6.90758e-01,1.35492e+00,-1.04513e-01,2.24665e+00,-5.81292e-01,-7.55054e-01,-1.12373e+00,
5.15177e-01,-1.82085e-01,-3.81102e-01,1.10058e+00,-1.64426e+00,-1.84763e+00,8.89844e-01,-8.33424e-01,-1.38297e-01,2.04747e-01,3.40381e+00,-1.57166e-01,2.39895e+00,-5.35445e-01,-3.76421e-01,-1.76951e+00,
-1.89587e-01,-6.36555e-02,7.68566e-01,1.80788e+00,3.42971e-01,-4.25171e-01,1.81918e+00,1.68741e-01,-2.27052e+00,-2.96458e+00,2.01066e+00,-1.86774e-01,1.56522e+00,-3.63281e-01,-3.33922e-01,7.12557e-01,
-3.28883e-01,1.19261e-01,8.04509e-01,1.62235e+00,-2.27062e-01,-9.32704e-01,-5.85059e-01,-3.06485e+00,-5.54207e-02,-1.74914e-01,1.65212e+00,-3.49689e-01,2.12320e+00,8.91715e-02,-4.51485e-01,-2.49072e-01,
4.21144e-01,2.30489e-01,1.27458e+00,1.80427e+00,-1.63044e+00,-2.17068e+00,6.55945e-02,7.46512e-04,-2.47985e-01,8.04714e-01,1.11544e+00,-3.04605e-02,2.42582e+00,-8.31081e-01,-7.48069e-01,-6.31027e-01,
-5.81432e-01,-8.99566e-02,5.68657e-01,2.01827e+00,9.99024e-02,-4.53314e-01,1.07940e+00,-6.77745e-02,-1.10397e+00,-5.29000e+00,1.99695e+00,-9.89620e-02,8.67273e-01,-6.01836e-01,-1.04395e-01,-3.52017e-01,
3.02072e-01,2.01019e-01,6.54941e-01,1.63620e+00,-1.00519e+00,-7.61138e-01,-1.14046e+00,-9.71144e-01,-2.47474e-01,-1.02344e+00,1.76486e+00,-2.23116e-01,1.41231e+00,-3.06170e-01,-4.40012e-01,-6.40737e-01,
-5.13113e-03,-2.37806e-01,1.49533e+00,1.93985e+00,-2.14528e+00,-1.49201e+00,2.24791e-01,-1.07074e-02,-1.03254e-01,5.26302e-01,7.02301e-01,-5.92792e-02,1.87274e+00,-6.00074e-01,-6.60011e-01,-1.37793e+00,
-7.68149e-01,
4.49281e-01,
-9.43990e-01,
-1.50405e+00,
1.19054e-01,
-8.08437e-01,
-8.42442e-01,
-2.84505e-01,
-1.05643e+00,
